23 100
</s> 0.004003 0.004419 -0.003830 -0.003278 0.001367 0.003021 0.000941 0.000211 -0.003604 0.002218 -0.004356 0.001250 -0.000751 -0.000957 -0.003316 -0.001882 0.002579 0.003025 0.002969 0.001597 0.001545 -0.003803 -0.004096 0.004970 0.003801 0.003090 -0.000604 0.004016 -0.000495 0.000735 -0.000149 -0.002983 0.001312 -0.001337 -0.003825 0.004754 0.004379 -0.001095 -0.000226 0.000509 -0.003638 -0.004007 0.004555 0.000063 -0.002582 -0.003042 -0.003076 0.001697 0.000201 0.001331 -0.004214 -0.003808 -0.000130 0.001144 0.002550 -0.003170 0.004080 0.000927 0.001120 -0.000608 0.002986 -0.002288 -0.002097 0.002158 -0.000753 0.001031 0.001805 -0.004089 -0.001983 0.002914 0.004232 0.003932 -0.003047 -0.002108 -0.000909 0.002001 -0.003788 0.002998 0.002788 -0.001599 -0.001552 -0.002238 0.004229 0.003912 -0.001180 0.004215 0.004820 0.001815 0.004983 -0.003111 -0.001532 -0.002107 -0.002907 0.002815 0.001579 0.000425 -0.002194 0.001524 0.003059 0.000194 
， 0.002088 -0.005316 0.004812 0.000435 -0.001576 -0.001656 -0.001204 -0.003559 -0.004679 -0.002148 0.004643 -0.001729 -0.002845 0.002130 -0.001631 0.004943 -0.001067 -0.004179 0.002956 0.000367 -0.003769 0.001495 0.002303 -0.000603 0.001832 -0.003741 0.000995 0.001693 -0.002935 0.000327 0.000008 -0.001807 -0.003349 -0.004313 -0.000288 0.000221 0.000165 -0.004267 -0.005331 -0.004829 -0.004110 0.000124 0.000929 0.000974 -0.002755 0.005148 -0.001791 -0.000936 -0.001488 0.004308 -0.004194 0.000828 -0.001735 0.003098 0.000101 0.003994 -0.002301 -0.002787 -0.003761 -0.004012 -0.002878 -0.003235 0.002814 -0.001987 0.002349 0.003712 0.001727 0.002378 0.003222 0.002438 -0.003504 -0.003424 -0.003864 -0.000707 0.004207 -0.002883 -0.003963 -0.003771 0.002819 -0.004729 -0.000384 0.002616 -0.004249 -0.004415 0.001982 0.004357 0.004674 0.002051 0.004078 -0.003374 -0.003710 0.004429 -0.002544 0.002345 0.001277 0.001838 -0.001233 0.000337 -0.002206 -0.000825 
的 -0.004794 -0.003931 0.004400 0.000918 -0.001810 -0.000664 0.001499 -0.004701 -0.002935 0.006062 0.005023 -0.003891 0.000499 -0.002623 0.000283 0.003326 0.005908 0.002876 0.004589 0.004045 -0.000690 0.005528 0.004322 0.004532 -0.001634 0.005160 0.004504 -0.001709 -0.004219 0.005167 0.001013 -0.000908 -0.001748 0.000095 -0.004580 -0.001317 -0.000118 -0.005520 -0.004227 -0.001364 -0.000572 0.003104 -0.000049 -0.001046 0.003814 0.001796 0.001052 0.004346 -0.001313 -0.002290 -0.001386 -0.003323 -0.003791 0.000099 0.004431 -0.001924 0.001080 -0.004473 0.004526 -0.002181 0.003584 -0.002704 -0.000141 -0.000122 0.002836 -0.000128 0.005191 -0.001879 0.003690 0.000087 -0.003773 0.004249 0.000711 -0.004100 0.003042 -0.004376 -0.006172 0.004053 -0.004387 -0.003739 0.003857 0.004160 0.001399 0.004643 0.005913 0.005805 0.002564 -0.004504 0.004163 -0.005361 -0.001388 0.002469 0.001413 -0.000365 0.004374 -0.004537 -0.001560 -0.001044 -0.002781 0.003643 
“ -0.004900 0.002395 0.001799 0.002782 0.003946 0.000724 0.000400 -0.005141 -0.001374 0.003824 -0.001448 0.004245 -0.001372 -0.004066 -0.002501 0.005056 0.003815 -0.003598 0.005019 -0.003791 -0.005030 0.002934 0.000172 -0.002461 -0.000380 -0.002295 0.002458 0.003708 0.004222 -0.004256 -0.002026 0.000581 -0.001477 0.004169 0.001916 0.004637 -0.002905 0.001390 0.003893 -0.001904 0.003143 0.001948 -0.004978 0.004002 0.005047 -0.002725 -0.000069 -0.001290 0.002405 -0.004271 0.003027 -0.001275 -0.001593 -0.002125 -0.004379 -0.003249 -0.000614 0.004464 -0.002125 -0.004975 0.000686 0.000483 0.003417 -0.000051 0.003117 0.003019 -0.001003 -0.001196 0.001537 0.001361 0.003371 0.004000 -0.002753 -0.003044 -0.001561 -0.002822 0.000360 -0.003406 -0.002765 -0.005542 0.002325 0.004757 -0.001868 -0.004498 0.003473 0.002406 -0.002100 -0.000760 -0.000350 -0.000342 -0.001840 0.000488 -0.002556 0.004348 0.004495 0.003337 -0.001529 0.000435 0.000323 -0.002421 
” -0.004872 -0.001443 -0.001520 0.002926 0.002985 0.002308 -0.003611 0.002944 -0.001964 0.004019 0.001704 0.004794 0.002328 0.000507 -0.002170 0.005107 -0.001682 0.003800 0.005183 0.005336 -0.000952 0.003780 0.005420 -0.002271 0.004690 -0.004689 0.000292 -0.000564 0.004250 -0.004122 -0.001366 -0.000963 -0.000158 0.005159 -0.002019 -0.004839 -0.001271 0.003943 0.000647 0.002833 -0.003600 -0.000583 0.000080 -0.002547 0.003905 -0.004589 0.003489 -0.002037 0.003133 0.002739 -0.002424 0.003218 -0.000002 0.004683 -0.003480 -0.001487 0.003359 0.004249 0.002713 -0.001315 0.000814 -0.000901 0.002308 0.002496 -0.004284 -0.001348 0.004613 -0.000296 0.005777 0.004899 0.000867 -0.004608 0.004340 0.001611 -0.004568 0.003535 -0.005833 -0.001746 0.003926 0.002793 -0.000569 0.001603 -0.002747 -0.004580 0.002728 0.005303 0.004504 0.002686 0.002478 0.001731 -0.000089 0.002049 -0.002360 0.001499 0.001622 -0.000011 0.002477 0.000876 -0.004699 -0.001083 
。 0.001882 0.003275 -0.003520 0.000983 0.003787 0.004082 -0.004396 0.002425 -0.002862 -0.001081 0.001484 0.002289 -0.004149 -0.002849 0.001292 0.000359 0.004886 0.002441 -0.002583 0.000258 0.000686 -0.002062 0.003771 -0.002821 0.004963 0.000819 -0.004430 0.000313 -0.000430 0.000987 0.003103 0.000462 -0.000588 0.000603 -0.002973 -0.000231 0.003348 0.003308 0.001741 -0.004996 0.000331 -0.002217 0.003409 0.004152 0.003509 0.001643 0.001395 -0.001521 -0.002433 -0.002227 -0.004203 0.000052 0.000555 0.001360 0.002130 -0.004076 0.003451 -0.001478 -0.003970 0.003766 -0.002637 -0.000867 -0.003879 0.004669 -0.002186 -0.004716 0.004102 0.001251 0.004033 0.001386 0.003727 0.000399 0.003556 0.004016 0.001756 -0.000624 0.000613 0.004185 -0.003429 -0.000926 0.001329 0.002318 0.000736 0.003745 0.001773 0.003841 -0.003057 -0.002071 0.002468 0.004497 0.001607 0.000958 -0.004477 -0.003978 0.004738 0.002473 -0.003006 -0.001563 -0.004173 -0.003266 
与 0.004403 -0.002737 0.001079 -0.001068 -0.002154 -0.000433 -0.004693 -0.002377 -0.000295 0.004528 -0.001780 0.003733 -0.004558 0.004145 0.000672 0.000271 0.002742 0.003409 -0.003134 0.003175 0.001341 -0.001108 0.003286 0.000485 0.004301 0.000251 -0.001627 0.003229 -0.003379 -0.000419 0.004060 0.004778 -0.004112 0.001444 0.003929 0.000527 0.002558 0.002666 0.004674 -0.000927 -0.001032 0.003132 -0.005033 0.001096 0.000474 0.004477 -0.003577 -0.000008 0.004436 0.001367 0.002518 0.001225 0.001320 0.001111 0.000243 0.003378 0.003887 0.002861 -0.001858 -0.002793 -0.003155 -0.001164 -0.002407 -0.004063 -0.001977 0.003536 0.002710 -0.004810 -0.001955 0.004061 -0.000349 0.003615 -0.001252 -0.000275 -0.002494 0.001635 -0.004268 0.002899 -0.002407 0.002643 -0.003062 -0.002177 0.004100 0.002619 0.002135 0.001692 0.003015 -0.000503 0.004040 0.003678 0.003391 0.004428 -0.002369 -0.003624 -0.003153 0.000264 0.000863 0.003917 -0.003283 0.003197 
、 0.003728 0.003374 0.000389 0.001267 -0.000609 0.005203 -0.004804 -0.005141 0.001767 -0.000177 0.005041 -0.001301 -0.000179 0.001986 0.001150 -0.002901 0.003835 0.000469 0.001447 -0.000808 0.004639 0.003014 0.005167 0.004524 -0.000851 0.002099 0.001539 -0.002391 0.004370 0.002481 -0.003211 0.004652 0.000066 0.001489 -0.003979 0.002069 0.000365 -0.002560 -0.000749 0.002068 -0.001095 0.004522 -0.003039 -0.002486 0.004172 0.004838 0.004010 0.004990 -0.004870 -0.003705 -0.005192 0.000869 -0.004281 -0.000312 0.000979 -0.002341 0.001623 -0.004589 0.002249 -0.001859 -0.001483 -0.001221 0.002389 -0.001779 -0.002711 -0.003277 -0.001474 -0.004580 0.002614 -0.001139 -0.001170 0.002101 -0.003925 -0.003620 -0.004642 -0.000136 -0.002661 -0.004370 0.001558 -0.005138 -0.002192 0.001901 0.005249 -0.003325 -0.001569 0.005667 0.003436 0.004277 0.004636 -0.002779 -0.002094 0.002607 0.003123 0.003982 0.003835 -0.004546 -0.004584 0.000726 -0.004966 0.003140 
我 0.004128 -0.002311 0.004155 -0.005041 0.004471 -0.001903 -0.001170 -0.005362 0.002750 0.004597 -0.003794 -0.000870 0.000753 0.004244 0.000247 -0.004821 0.001075 -0.001456 0.001018 0.004351 -0.003004 -0.002249 0.000326 -0.001163 -0.001747 -0.003287 -0.000001 -0.004195 0.004110 0.002772 -0.001262 0.003638 -0.003355 -0.004278 0.004156 0.001304 0.002994 -0.003599 -0.001572 0.003522 -0.001154 0.001599 -0.004983 -0.004136 0.005064 -0.004334 0.001197 -0.002884 0.003844 -0.000821 0.003889 -0.003606 0.000794 -0.004668 -0.003200 -0.001213 0.004669 -0.002634 0.002684 -0.000879 0.003398 0.002659 -0.002333 -0.003818 0.000311 0.000880 0.000922 -0.000068 0.002778 0.003839 0.003877 -0.004889 0.004613 -0.004467 0.000601 -0.003973 -0.001602 0.004998 -0.002976 0.001109 -0.002185 -0.000507 0.003747 0.002614 -0.003853 0.002409 0.000069 0.001979 0.001504 -0.003599 0.000320 -0.003520 0.003065 0.001532 0.002216 0.002803 0.004840 0.004624 0.002093 0.003098 
我们 0.001899 -0.001197 0.004733 -0.000224 0.001854 -0.000582 0.001175 -0.001007 0.004045 0.002212 -0.000204 -0.000396 0.002151 -0.003271 -0.001836 0.001563 0.001124 -0.003859 -0.001678 -0.001482 -0.002259 0.004024 0.004362 -0.004280 0.003223 -0.002526 0.001557 0.002169 -0.000229 -0.003736 0.000103 -0.001280 0.002183 0.002608 0.000690 -0.002340 -0.000740 0.000290 -0.002393 -0.004430 0.000025 -0.002312 -0.002905 0.000566 -0.002487 0.002758 -0.001493 0.003756 -0.003274 -0.001837 0.002092 -0.002495 -0.004583 -0.000950 0.003103 -0.001405 0.004522 0.001792 -0.002686 0.004695 -0.004694 -0.003979 0.003415 -0.003015 0.003368 0.003935 0.002924 -0.001791 -0.002352 -0.000123 -0.000132 -0.005009 -0.003972 0.000609 0.000716 0.004826 0.002651 -0.003231 0.004115 -0.001489 0.003213 -0.000863 0.002328 0.000165 0.004277 0.003029 -0.001777 0.004621 -0.003725 0.004346 -0.001710 0.000874 0.001329 0.004420 0.002288 -0.001108 -0.004641 0.003650 0.000127 0.002686 
： -0.004065 -0.002688 -0.002457 -0.002432 0.003143 0.002601 -0.000322 0.002140 -0.000538 -0.001318 -0.004026 -0.002843 0.000223 -0.002368 -0.002457 -0.004231 0.003106 0.004226 -0.001541 0.003842 -0.001966 -0.004787 -0.004830 -0.000482 -0.002102 0.000241 -0.003660 0.003741 -0.002216 0.001311 0.003614 -0.000175 -0.004751 0.003061 0.000764 0.003297 0.000680 0.002291 0.004310 0.002645 -0.003482 -0.001114 0.003090 -0.001395 -0.002001 0.004489 -0.001410 0.004545 0.002689 0.003816 0.004484 -0.003981 0.000866 0.003993 -0.002501 0.001521 -0.004729 0.004426 -0.003618 0.001749 0.000821 -0.002814 0.002470 0.000030 -0.004790 -0.003230 -0.000258 0.002034 -0.001108 0.000241 0.004590 -0.003764 0.004093 -0.002958 -0.004056 0.003232 -0.003820 -0.000519 -0.004862 -0.003702 0.003003 0.001744 -0.003696 0.001446 0.004453 0.001065 -0.004398 -0.003320 0.003269 -0.003225 0.001966 0.002990 0.004455 0.001252 -0.003056 0.003484 -0.004144 -0.001328 0.004183 0.004059 
是 -0.002569 -0.004179 0.000916 0.002828 0.002734 0.004344 0.003709 0.000194 -0.005218 0.003227 -0.001963 0.001393 0.003509 -0.002568 0.003737 0.000068 -0.000862 -0.003256 -0.000577 0.005548 0.001543 -0.002019 0.004482 -0.002922 -0.001345 0.003665 -0.002949 -0.000212 -0.002787 -0.001194 0.004518 -0.000000 -0.003741 0.001016 0.001441 0.002916 0.001482 -0.002257 -0.002028 0.001712 0.005100 0.004682 -0.005229 -0.000796 -0.004097 0.002069 -0.003067 0.002068 0.003105 -0.001330 -0.002325 -0.004001 0.000372 -0.004200 0.000044 0.004379 0.004346 0.003385 0.003274 -0.000835 -0.000711 -0.003313 0.000715 -0.002923 -0.003645 0.002753 -0.000578 -0.005103 0.001815 0.000894 -0.001832 -0.004216 -0.005362 0.002307 -0.001170 0.000639 -0.003664 0.004477 -0.005524 -0.004488 -0.001401 0.001189 0.003917 0.000983 0.001367 0.003879 0.003243 -0.004941 0.000394 0.001653 0.004022 0.003185 0.001623 0.003887 0.002455 -0.001311 -0.002366 0.003290 0.000951 0.002088 
这 0.000682 0.001242 0.003860 0.002813 -0.003923 0.000883 -0.002378 -0.005468 0.000042 0.004850 -0.000268 0.004203 0.004396 -0.000018 0.004088 -0.001348 0.001575 -0.002098 0.000922 -0.000788 -0.004992 -0.001075 0.001732 -0.001705 0.004465 -0.002287 -0.001297 0.002931 -0.000901 0.001810 0.000222 0.001525 0.001094 0.000865 0.004124 0.003146 -0.002571 -0.004227 0.002477 0.002488 0.003934 0.003359 -0.001147 -0.004996 0.001494 -0.002072 0.000370 -0.000427 0.002160 0.000154 0.004049 -0.004678 0.001632 0.003053 0.003555 -0.002728 -0.001345 -0.000079 0.001669 0.000294 0.001237 -0.001766 0.004501 0.003219 0.002592 -0.002413 0.001249 -0.004079 0.000043 -0.000184 0.003242 0.003130 -0.002435 -0.001129 0.004761 -0.000786 -0.002413 0.003835 0.001560 0.002661 0.004005 0.002009 0.004153 -0.004444 -0.000153 -0.003351 0.002149 -0.000469 0.003336 0.000488 -0.000438 0.001710 0.003695 0.003677 0.004356 -0.001153 0.004917 0.002879 0.002709 0.003115 
发展 0.002038 0.001549 -0.000731 -0.003087 0.002496 0.004269 -0.004334 -0.003595 -0.003810 -0.002512 -0.000441 0.000220 -0.003878 0.000864 -0.001094 -0.001444 -0.002452 -0.003117 -0.004373 0.005078 -0.002461 -0.000409 0.003800 -0.004896 -0.003274 -0.003888 -0.000995 -0.002707 -0.002376 -0.003921 0.001004 0.002642 -0.004744 0.001617 0.000755 0.003762 -0.002259 -0.003141 0.002546 -0.003066 0.004774 -0.000512 0.002381 0.000265 -0.000714 -0.001675 -0.000394 0.004842 -0.004019 -0.004385 -0.005122 0.003308 0.003002 -0.003617 0.003074 0.001959 0.000644 -0.002961 -0.000024 -0.001007 0.000872 -0.002588 0.004484 -0.004827 -0.000815 -0.000487 -0.001741 0.003564 0.003849 -0.002089 0.004931 0.000485 0.003820 -0.000666 0.001091 0.003604 0.002467 0.003837 -0.004378 0.003872 -0.004751 0.003028 0.000264 0.004943 -0.000588 0.001677 -0.001687 0.002090 0.005128 -0.003771 -0.003644 0.004067 0.004739 -0.002883 0.003687 0.000985 0.003845 -0.004218 0.000836 -0.003091 
从 0.000033 -0.003422 0.003299 -0.003047 0.003880 -0.001703 -0.005113 -0.000701 -0.003479 -0.002015 -0.001895 -0.003572 -0.005130 -0.002011 0.000948 -0.000329 -0.003317 0.005042 -0.000869 -0.004222 -0.000223 0.004105 -0.000477 0.001742 -0.000810 0.005005 -0.001724 -0.000172 -0.000794 0.000193 -0.000347 0.003840 -0.003328 0.004611 -0.003884 -0.003047 0.004159 0.003649 -0.005010 -0.000570 0.001938 -0.000067 -0.005369 0.001697 -0.003866 0.001779 -0.002553 -0.002226 0.003498 -0.004743 -0.005316 0.001315 -0.004843 -0.001174 -0.003816 0.002706 0.004971 0.000304 -0.000996 0.001686 0.005220 0.002406 0.004114 0.002255 -0.005467 -0.000485 -0.003970 -0.000992 0.005794 -0.001419 0.000955 0.002199 -0.003169 -0.001626 -0.001744 0.000522 -0.004176 0.003522 -0.001458 -0.002342 0.001712 -0.004374 -0.002160 0.001171 0.002425 0.003492 0.000120 -0.002934 0.001162 0.004180 0.004443 -0.002112 0.001596 0.003700 0.004190 0.004985 0.003419 0.003101 -0.000130 -0.004060 
到 -0.003516 0.000965 0.002263 -0.002108 0.003283 -0.002842 -0.003164 0.002141 -0.001523 0.002898 -0.003178 0.002356 0.000355 0.002679 -0.004869 0.003637 -0.001003 0.004313 -0.001394 0.004620 -0.003641 -0.003335 -0.003687 -0.004378 -0.001534 0.001870 -0.001131 0.000496 0.002530 0.004608 0.001069 0.005036 -0.001442 0.001946 -0.001187 -0.003161 -0.000079 0.002996 0.001301 -0.002740 0.001053 0.000676 -0.000248 -0.000575 -0.000119 -0.001527 -0.001557 -0.000572 -0.003657 0.003811 0.003015 0.004792 0.003307 -0.003323 0.003224 -0.002936 -0.003661 -0.001435 0.000025 -0.000829 0.002260 0.004203 -0.002723 -0.002982 0.001464 0.000641 0.001440 -0.001396 -0.002563 -0.002636 0.001450 -0.004706 0.003902 -0.003864 -0.001245 -0.000213 -0.000594 0.002316 -0.002887 -0.002083 0.004575 0.002023 0.003555 -0.001485 0.001240 -0.004689 -0.003840 0.001707 0.004799 0.003506 -0.003472 0.001302 0.002538 0.002311 -0.000895 0.002457 -0.004935 -0.002301 -0.000777 0.004066 
之 -0.004894 -0.000297 -0.002961 -0.003542 -0.002374 0.000336 0.003216 0.003229 0.000312 0.004064 0.001825 0.000048 0.003321 -0.002080 -0.000728 -0.004802 -0.000692 0.001434 0.004463 -0.000541 0.003430 -0.003363 -0.001195 -0.003888 0.003342 -0.001939 -0.003797 0.000939 -0.000798 0.002737 0.003064 0.002222 0.003666 0.000196 -0.001706 0.000741 0.001889 0.002469 0.003299 -0.000223 0.001528 0.004089 0.001986 -0.004888 0.002740 0.002085 0.000761 -0.004973 -0.001820 -0.004011 -0.001469 0.000303 0.003005 -0.002167 -0.003300 0.004223 0.004871 0.002148 -0.000824 0.002565 0.003934 -0.004036 0.002365 0.003613 0.002850 -0.001186 -0.004826 -0.001852 -0.003223 0.002728 -0.000993 -0.000550 0.003369 0.002238 -0.002227 0.003300 0.002784 0.004375 -0.002124 -0.002019 -0.002323 -0.001330 -0.001777 0.004273 0.003205 -0.002846 0.000221 -0.004542 -0.002976 0.004360 -0.002225 -0.002684 -0.000710 -0.002683 -0.002708 -0.001870 0.002660 -0.004443 -0.002321 -0.001320 
大 0.002224 0.000912 0.000598 0.002207 -0.003983 -0.001197 -0.001111 0.004269 0.003258 0.005125 0.000790 0.004084 -0.002329 -0.000625 0.003595 0.001424 0.004299 0.004830 -0.000551 0.000052 -0.000321 0.004958 0.002492 -0.004891 -0.004739 -0.003071 -0.002151 -0.004296 0.003145 0.000503 -0.004145 0.002717 -0.001912 -0.002145 -0.002878 -0.001754 -0.000965 0.002760 -0.003983 -0.000987 0.004894 0.003731 -0.001324 0.003154 -0.001277 -0.001453 0.004578 0.001788 -0.004548 -0.000093 0.003843 -0.002870 0.002988 0.003089 0.001849 -0.003915 0.002198 0.004319 0.004240 -0.003653 0.004320 0.003345 -0.000194 -0.000978 -0.005074 0.002265 0.000019 -0.003134 0.003084 -0.004525 -0.001074 -0.003400 -0.003502 -0.000316 0.002950 -0.004455 -0.000588 -0.004306 0.000751 0.004593 -0.002388 0.004082 0.004763 -0.002063 -0.002489 0.000239 -0.002446 0.000272 -0.000362 0.000029 -0.004183 0.000706 -0.004019 0.004905 -0.000659 -0.000922 0.002528 -0.004881 -0.002200 -0.000458 
中 -0.003074 -0.003967 -0.002666 -0.002747 -0.000624 0.005198 0.002191 0.000651 0.001784 0.000979 0.003538 0.001430 0.000082 -0.004353 0.000580 0.001666 0.002225 0.004776 -0.001516 -0.002093 -0.003044 0.004272 0.003857 -0.002577 -0.001850 0.003919 0.004038 0.001885 0.000716 -0.004016 0.001943 0.005144 0.001654 0.005138 0.000832 0.001165 0.002455 -0.002473 -0.002286 -0.000371 0.004639 0.004373 0.000847 0.000830 0.003956 -0.004283 0.002446 -0.001178 -0.002991 -0.003063 -0.005246 -0.002144 -0.004777 -0.004111 -0.003641 -0.002626 0.001422 0.000935 0.004894 -0.001982 -0.000594 0.004836 0.001555 0.003010 -0.002753 0.001667 0.000842 -0.002293 -0.003331 -0.001218 -0.001252 0.001425 -0.002258 -0.004968 0.004435 0.003736 -0.002982 0.003950 -0.000863 -0.001793 0.003039 -0.001461 -0.002237 0.001574 0.004813 -0.003382 0.005228 0.000871 0.005266 -0.003543 0.000787 -0.002165 -0.001337 0.002276 -0.003114 0.004612 0.003679 -0.003217 -0.004646 -0.001703 
每 0.000571 -0.002151 -0.004771 -0.003859 0.001694 0.005050 0.003474 -0.000544 0.002057 -0.000002 0.002449 0.001609 -0.000450 -0.002683 -0.004519 -0.001913 0.004379 0.004378 -0.000701 -0.002673 -0.001192 0.000354 0.002884 -0.000104 -0.001631 -0.002649 -0.002805 -0.000697 0.000612 -0.000050 -0.003422 0.001439 -0.004459 -0.004720 -0.002774 0.004137 -0.003812 0.002557 -0.001792 -0.001475 -0.002653 0.004358 0.000815 -0.002197 -0.003168 0.004593 -0.000884 -0.002096 0.004606 0.000547 -0.000915 -0.003276 0.003559 0.001980 0.000219 -0.004602 -0.001014 0.000641 0.003592 -0.002939 -0.001895 0.001190 0.003041 -0.002406 0.001211 0.000603 -0.004919 -0.004914 0.001403 -0.001570 -0.001418 0.000644 0.003091 -0.003436 -0.004976 -0.002794 0.004365 -0.000037 -0.001803 0.000604 -0.004373 -0.004818 0.004823 -0.000571 -0.000838 0.002021 0.003441 0.004092 0.000217 0.002132 -0.004544 -0.001854 -0.003805 0.000697 -0.004887 -0.002936 -0.002412 0.004156 -0.001726 -0.000557 
； -0.003003 0.002326 0.004566 -0.004140 -0.000379 -0.002652 0.004709 -0.000396 0.002888 0.003468 0.003222 -0.003275 -0.002803 -0.002318 -0.004038 -0.004800 -0.004761 -0.000047 0.002139 -0.004042 0.001785 0.001928 0.003225 0.002086 0.004874 -0.001828 0.002685 -0.000423 0.004549 -0.004162 -0.002616 -0.003172 0.003322 0.004480 -0.003992 0.004191 -0.003318 -0.004099 0.000144 -0.004710 0.002001 0.005055 0.003546 -0.004199 -0.000440 -0.001538 0.002808 0.004132 0.001776 -0.004111 -0.003620 0.000743 0.004115 -0.000422 -0.003726 -0.000796 0.004319 0.003746 -0.003950 -0.004740 0.002109 -0.004414 0.002042 -0.002824 0.000309 0.004564 0.003352 -0.004443 0.004502 0.002771 0.001221 0.004047 0.001589 0.004578 -0.000297 -0.001938 0.002173 -0.002640 -0.004913 -0.003992 -0.000869 0.000309 -0.003432 -0.001162 -0.002730 -0.004370 -0.004840 -0.000438 0.004326 -0.002477 0.004855 0.004205 0.000247 0.003598 0.002363 0.000738 -0.002000 0.002895 -0.004023 0.000290 
都 0.002626 -0.002389 -0.001999 -0.004112 0.001969 0.002592 0.001320 0.003285 -0.004292 0.004460 0.003300 0.001237 -0.002983 0.002542 0.002126 0.000032 0.000969 -0.000439 -0.000382 0.003109 0.004681 -0.000417 -0.000379 -0.003976 -0.000970 -0.000398 -0.001875 -0.002558 -0.003719 -0.000633 0.004558 -0.001885 0.001490 0.000874 0.000059 0.000908 0.002827 -0.001633 -0.001307 0.001924 -0.000041 -0.000452 -0.003236 -0.000560 -0.004276 0.003131 0.003418 0.004342 -0.004918 0.001506 -0.000470 -0.000546 -0.004114 -0.000543 -0.000424 0.001061 -0.001429 0.003692 -0.000317 -0.002806 -0.004789 0.003837 -0.001289 -0.001222 0.001136 0.001991 -0.001877 -0.001158 0.004521 0.002572 0.001774 0.003577 0.004582 0.002461 -0.003794 0.000830 0.004575 0.001802 0.000120 0.001507 0.000034 0.001994 -0.004574 -0.000783 -0.002035 -0.002150 -0.004555 -0.000711 -0.001282 -0.004045 -0.003320 0.000372 0.004684 -0.003277 -0.001508 0.002806 0.001382 0.001340 0.001425 0.000302 
生态 -0.003533 0.004751 0.000365 -0.001658 0.000015 0.004024 0.001070 -0.004652 0.004588 -0.001510 0.002798 0.002212 -0.004529 0.000246 -0.003323 0.002020 0.000327 0.003936 -0.003229 0.000680 -0.000831 -0.003535 -0.000464 -0.003679 0.004770 -0.002623 0.003625 -0.000137 0.002247 -0.001262 0.000702 0.004632 -0.000782 -0.004874 0.004548 -0.003787 -0.004022 0.003422 0.001669 0.003043 -0.004943 0.003368 0.000858 -0.004169 0.001674 -0.003226 0.003658 -0.002024 0.003372 -0.001744 0.003742 -0.004941 0.000426 0.004974 -0.002187 -0.004490 -0.004449 -0.003719 0.004600 0.000081 0.003696 0.004289 -0.004514 0.002061 0.002616 0.003537 0.004460 -0.002840 0.002654 0.001054 -0.002147 0.003819 -0.003904 -0.003713 0.004622 0.002648 -0.001673 0.001422 -0.003830 -0.003048 -0.002923 0.000864 -0.003509 0.002644 0.002402 0.001722 0.001837 -0.002145 -0.003060 0.003344 0.001133 0.003503 -0.004231 -0.001970 -0.004082 0.002663 -0.003327 0.000143 -0.000159 0.001351 
